solver_type L2R_LR
nr_class 2
label 1 -1
nr_feature 100
bias -1
w
0.08016335884890013 
-0.05013926994738117 
-0.08817493693550138 
-0.1276062278802208 
0.01719274284449467 
-0.1368467449955786 
0.2264937708810778 
-0.210910305490119 
0.05378149836187948 
-0.1170450596098198 
-0.03607020896635616 
0.07267375915452401 
-0.1464269390505095 
0.009263781971082467 
-0.02249227485309315 
0.06121368596606972 
0.1090817409830243 
0.1077051202865986 
0.0169234658583658 
-0.07303189945800156 
0.158793897604023 
-0.1347097905082836 
-0.02853283800027243 
-0.003947718019056743 
-0.2020354239165864 
0.02674916086803532 
0.1539899124130906 
-0.09648174824244801 
-0.01350887360552855 
-0.03443567317797318 
0.0851636012233246 
0.02046508059848251 
0.1130382101688953 
-0.1237151088986722 
-0.02403849026495752 
0.07335792154329618 
0.1014012224771776 
-0.103428727568179 
0.1578876151674141 
-0.04156195360705943 
-0.05040686729549339 
0.02641800661996093 
-0.07457427853729 
0.02764260067155119 
-0.059219367782702 
-0.007847093072947925 
-0.007423738602058891 
-0.07841835072188398 
-0.01205103766921807 
0.009306382531187202 
-0.09313946520235124 
-0.01110709114477561 
0.002006712396480605 
-0.0297308821642257 
0.1345334304741919 
0.08060362219908726 
-0.1415855460332676 
0.07037276355931377 
-0.1002303868573301 
0.1178303100868192 
-0.04595016085385162 
0.03581755739796427 
-0.1649243252994829 
0.2092693787599954 
0.07725542111598394 
0.053016500941684 
-0.1416801415941047 
-0.07218152299819759 
0.04955465527918793 
-0.03980183383658335 
-0.02147550398640354 
-0.06519423889479002 
-0.04825285820166469 
0.06135850422090482 
-0.0668129528301685 
0.01341917040290557 
0.03920315969926594 
-0.1173383188283913 
-0.01438699517155244 
0.05975242283220258 
-0.05468795738427275 
-0.01142209147722116 
-0.07601474799692794 
0.04659519772279169 
0.08214251223056294 
0.09068338359900349 
0.1595286387426375 
0.06312149496343716 
0.04688104369250133 
0.1582493923970764 
-0.02579978734332788 
-0.1296937712583884 
0.1457319196012486 
0.02236422804041746 
0.02862285591565253 
0.04160661374270817 
-0.05610261567568701 
-0.0402643093122514 
0.1405607680452223 
-0.001426988191475885 
